digraph Tree {
node [shape=box, style="filled, rounded", color="black", fontname="helvetica"] ;
edge [fontname="helvetica"] ;
0 [label="petal width (cm) <= 0.8\nsquared_error = 0.667\nsamples = 150\nvalue = 1.0", fillcolor="#f2c09c"] ;
1 [label="squared_error = 0.0\nsamples = 50\nvalue = 0.0", fillcolor="#ffffff"] ;
0 -> 1 [labeldistance=2.5, labelangle=45, headlabel="True"] ;
2 [label="petal width (cm) <= 1.75\nsquared_error = 0.25\nsamples = 100\nvalue = 1.5", fillcolor="#eca06a"] ;
0 -> 2 [labeldistance=2.5, labelangle=-45, headlabel="False"] ;
3 [label="petal length (cm) <= 4.95\nsquared_error = 0.084\nsamples = 54\nvalue = 1.093", fillcolor="#f1ba93"] ;
2 -> 3 ;
4 [label="petal width (cm) <= 1.65\nsquared_error = 0.02\nsamples = 48\nvalue = 1.021", fillcolor="#f2bf9a"] ;
3 -> 4 ;
5 [label="squared_error = 0.0\nsamples = 47\nvalue = 1.0", fillcolor="#f2c09c"] ;
4 -> 5 ;
6 [label="squared_error = 0.0\nsamples = 1\nvalue = 2.0", fillcolor="#e58139"] ;
4 -> 6 ;
7 [label="petal width (cm) <= 1.55\nsquared_error = 0.222\nsamples = 6\nvalue = 1.667", fillcolor="#e9965a"] ;
3 -> 7 ;
8 [label="squared_error = 0.0\nsamples = 3\nvalue = 2.0", fillcolor="#e58139"] ;
7 -> 8 ;
9 [label="petal length (cm) <= 5.45\nsquared_error = 0.222\nsamples = 3\nvalue = 1.333", fillcolor="#eeab7b"] ;
7 -> 9 ;
10 [label="squared_error = 0.0\nsamples = 2\nvalue = 1.0", fillcolor="#f2c09c"] ;
9 -> 10 ;
11 [label="squared_error = 0.0\nsamples = 1\nvalue = 2.0", fillcolor="#e58139"] ;
9 -> 11 ;
12 [label="petal length (cm) <= 4.85\nsquared_error = 0.021\nsamples = 46\nvalue = 1.978", fillcolor="#e5823b"] ;
2 -> 12 ;
13 [label="squared_error = 0.222\nsamples = 3\nvalue = 1.667", fillcolor="#e9965a"] ;
12 -> 13 ;
14 [label="squared_error = 0.0\nsamples = 43\nvalue = 2.0", fillcolor="#e58139"] ;
12 -> 14 ;
}